digraph Tree {
node [shape=box] ;
0 [label="lstat <= 8.13\nmse = 85.1437\nsamples = 404\nvalue = 22.6119"] ;
1 [label="rm <= 7.437\nmse = 76.7005\nsamples = 139\nvalue = 31.3784"] ;
0 -> 1 [labeldistance=2.5, labelangle=45, headlabel="True"] ;
2 [label="mse = 37.7493\nsamples = 115\nvalue = 28.5504"] ;
1 -> 2 ;
3 [label="mse = 41.3979\nsamples = 24\nvalue = 44.9292"] ;
1 -> 3 ;
4 [label="lstat <= 15.0\nmse = 28.1169\nsamples = 265\nvalue = 18.0136"] ;
0 -> 4 [labeldistance=2.5, labelangle=-45, headlabel="False"] ;
5 [label="mse = 13.4186\nsamples = 132\nvalue = 21.6008"] ;
4 -> 5 ;
6 [label="mse = 17.2587\nsamples = 133\nvalue = 14.4534"] ;
4 -> 6 ;
}